{"input_nodes":4,"hidden_nodes":10,"output_nodes":1,"weights_ih":{"rows":10,"cols":4,"data":[[0.40563296362577245,0.43019708383240757,-0.3480947269265325,0.4121529268179425],[-0.32533000033782783,0.6461556852035739,-1.0514040568645804,0.7214425121808691],[-0.9544513155180402,0.5647887657877773,0.8684109202580627,0.050462390476739664],[0.043306770763020794,0.934594602332836,-0.5166046197456577,-0.05970579612504639],[0.032698342163142845,0.27055735918389817,0.6212490465282744,-0.30078772956816724],[-0.19888802411476827,0.9955665306093366,0.20636193261867697,-0.08940428459611517],[0.5533747114695043,-0.7150931329997191,-0.8431177317793705,0.2991522694665097],[0.9660816732183561,0.04061674549265997,0.8233767212774072,0.41199575390190196],[-0.8958941722573144,0.30197868594725374,-0.6515120336527441,-0.3765913808162023],[0.7837830960731167,-0.2786570493313525,-0.34944474634673656,-0.6971414165670099]]},"weights_ho":{"rows":1,"cols":10,"data":[[0.6124080427836205,-0.5710143716087137,0.31036023825286385,-0.1647200858744119,-0.8416903825520212,-0.21162689918730096,0.019787268130003362,-0.4998000646872497,0.4141786032306218,0.7293781964361297]]},"bias_h":{"rows":10,"cols":1,"data":[[0.5715241598563949],[0.5993446698574887],[0.616044715260641],[-0.5969943797500548],[1.183393872805041],[-0.6616342553861528],[0.3647631238372378],[-0.48189983524007923],[0.4028888193364116],[-0.8935870889986754]]},"bias_o":{"rows":1,"cols":1,"data":[[0.3798913143654029]]},"learning_rate":0.1,"activation_function":{}}